digraph Tree {
node [shape=box, style="filled", color="black", fontname="helvetica"] ;
edge [fontname="helvetica"] ;
0 [label="Prev1 <= 15.471\nsquared_error = 92.087\nsamples = 2929\nvalue = 0.221", fillcolor="#f7dac5"] ;
1 [label="Prev1 <= -4.634\nsquared_error = 31.785\nsamples = 2821\nvalue = -1.039", fillcolor="#f8dbc7"] ;
0 -> 1 [labeldistance=2.5, labelangle=45, headlabel="True"] ;
5 [label="Prev1 <= -13.049\nsquared_error = 35.288\nsamples = 494\nvalue = -9.394", fillcolor="#f9e2d1"] ;
1 -> 5 ;
9 [label="Inflation <= 33.189\nsquared_error = 55.361\nsamples = 96\nvalue = -18.27", fillcolor="#fae9dc"] ;
5 -> 9 ;
17 [label="Prev1 <= -18.021\nsquared_error = 12.138\nsamples = 88\nvalue = -16.501", fillcolor="#fae7da"] ;
9 -> 17 ;
31 [label="Healthcare expenditure <= 80.096\nsquared_error = 11.907\nsamples = 28\nvalue = -20.149", fillcolor="#fbeade"] ;
17 -> 31 ;
71 [label="Mortality <= 18.0\nsquared_error = 7.023\nsamples = 25\nvalue = -19.333", fillcolor="#fbe9dd"] ;
31 -> 71 ;
107 [label="squared_error = 0.0\nsamples = 1\nvalue = -12.407", fillcolor="#f9e4d5"] ;
71 -> 107 ;
108 [label="Prev1 <= -21.345\nsquared_error = 5.234\nsamples = 24\nvalue = -19.621", fillcolor="#fbeadd"] ;
71 -> 108 ;
109 [label="Inflation <= 0.762\nsquared_error = 2.795\nsamples = 7\nvalue = -22.377", fillcolor="#fbece1"] ;
108 -> 109 ;
243 [label="squared_error = 0.0\nsamples = 1\nvalue = -25.379", fillcolor="#fceee4"] ;
109 -> 243 ;
244 [label="squared_error = 1.509\nsamples = 6\nvalue = -21.877", fillcolor="#fbebe0"] ;
109 -> 244 ;
110 [label="Life Expectancy <= 69.601\nsquared_error = 1.823\nsamples = 17\nvalue = -18.486", fillcolor="#fae9dc"] ;
108 -> 110 ;
229 [label="squared_error = 1.245\nsamples = 10\nvalue = -19.192", fillcolor="#fbe9dd"] ;
110 -> 229 ;
230 [label="squared_error = 0.92\nsamples = 7\nvalue = -17.478", fillcolor="#fae8db"] ;
110 -> 230 ;
72 [label="squared_error = 0.722\nsamples = 3\nvalue = -26.955", fillcolor="#fcefe6"] ;
31 -> 72 ;
32 [label="Prev1 <= -15.41\nsquared_error = 3.134\nsamples = 60\nvalue = -14.798", fillcolor="#fae6d8"] ;
17 -> 32 ;
89 [label="OC <= 0.5\nsquared_error = 1.675\nsamples = 30\nvalue = -15.956", fillcolor="#fae7d9"] ;
32 -> 89 ;
235 [label="squared_error = 1.699\nsamples = 15\nvalue = -15.348", fillcolor="#fae6d8"] ;
89 -> 235 ;
236 [label="squared_error = 0.911\nsamples = 15\nvalue = -16.564", fillcolor="#fae7da"] ;
89 -> 236 ;
90 [label="Prev2 <= -17.63\nsquared_error = 1.912\nsamples = 30\nvalue = -13.64", fillcolor="#fae5d6"] ;
32 -> 90 ;
193 [label="squared_error = 0.024\nsamples = 3\nvalue = -11.306", fillcolor="#f9e3d3"] ;
90 -> 193 ;
194 [label="DALYs <= 32016.386\nsquared_error = 1.45\nsamples = 27\nvalue = -13.9", fillcolor="#fae5d7"] ;
90 -> 194 ;
233 [label="squared_error = 0.0\nsamples = 1\nvalue = -17.197", fillcolor="#fae8db"] ;
194 -> 233 ;
234 [label="Prev2 <= -12.263\nsquared_error = 1.071\nsamples = 26\nvalue = -13.773", fillcolor="#fae5d6"] ;
194 -> 234 ;
247 [label="squared_error = 0.761\nsamples = 23\nvalue = -13.548", fillcolor="#fae5d6"] ;
234 -> 247 ;
248 [label="squared_error = 0.106\nsamples = 3\nvalue = -15.492", fillcolor="#fae6d8"] ;
234 -> 248 ;
18 [label="DALYs <= 37802.768\nsquared_error = 117.606\nsamples = 8\nvalue = -37.732", fillcolor="#fdf8f3"] ;
9 -> 18 ;
27 [label="squared_error = 30.469\nsamples = 4\nvalue = -28.242", fillcolor="#fcf0e8"] ;
18 -> 27 ;
28 [label="squared_error = 24.607\nsamples = 4\nvalue = -47.222", fillcolor="#ffffff"] ;
18 -> 28 ;
10 [label="Prev1 <= -7.878\nsquared_error = 6.861\nsamples = 398\nvalue = -7.253", fillcolor="#f9e0ce"] ;
5 -> 10 ;
21 [label="Prev2 <= -24.135\nsquared_error = 6.135\nsamples = 138\nvalue = -9.815", fillcolor="#f9e2d2"] ;
10 -> 21 ;
49 [label="squared_error = 0.0\nsamples = 1\nvalue = 7.053", fillcolor="#f6d5bd"] ;
21 -> 49 ;
50 [label="Prev1 <= -9.92\nsquared_error = 4.088\nsamples = 137\nvalue = -9.938", fillcolor="#f9e2d2"] ;
21 -> 50 ;
63 [label="Prev2 <= -7.139\nsquared_error = 2.534\nsamples = 71\nvalue = -11.067", fillcolor="#f9e3d3"] ;
50 -> 63 ;
111 [label="Prev1 <= -11.345\nsquared_error = 1.847\nsamples = 69\nvalue = -10.926", fillcolor="#f9e3d3"] ;
63 -> 111 ;
163 [label="squared_error = 1.127\nsamples = 29\nvalue = -11.615", fillcolor="#f9e3d4"] ;
111 -> 163 ;
164 [label="Prev2 <= -9.563\nsquared_error = 1.773\nsamples = 40\nvalue = -10.426", fillcolor="#f9e3d2"] ;
111 -> 164 ;
165 [label="Prev2 <= -12.175\nsquared_error = 0.989\nsamples = 33\nvalue = -10.049", fillcolor="#f9e2d2"] ;
164 -> 165 ;
205 [label="squared_error = 0.458\nsamples = 6\nvalue = -8.551", fillcolor="#f9e1d0"] ;
165 -> 205 ;
206 [label="squared_error = 0.498\nsamples = 27\nvalue = -10.382", fillcolor="#f9e3d2"] ;
165 -> 206 ;
166 [label="squared_error = 1.648\nsamples = 7\nvalue = -12.201", fillcolor="#f9e4d4"] ;
164 -> 166 ;
112 [label="squared_error = 1.85\nsamples = 2\nvalue = -15.935", fillcolor="#fae7d9"] ;
63 -> 112 ;
64 [label="Prev2 <= -1.119\nsquared_error = 2.915\nsamples = 66\nvalue = -8.723", fillcolor="#f9e1d0"] ;
50 -> 64 ;
75 [label="Prev2 <= -11.498\nsquared_error = 1.09\nsamples = 65\nvalue = -8.555", fillcolor="#f9e1d0"] ;
64 -> 75 ;
169 [label="squared_error = 0.27\nsamples = 3\nvalue = -5.879", fillcolor="#f8dfcd"] ;
75 -> 169 ;
170 [label="Prev1 <= -8.552\nsquared_error = 0.767\nsamples = 62\nvalue = -8.684", fillcolor="#f9e1d0"] ;
75 -> 170 ;
225 [label="squared_error = 0.616\nsamples = 34\nvalue = -9.086", fillcolor="#f9e2d1"] ;
170 -> 225 ;
226 [label="squared_error = 0.516\nsamples = 28\nvalue = -8.196", fillcolor="#f9e1d0"] ;
170 -> 226 ;
76 [label="squared_error = 0.0\nsamples = 1\nvalue = -19.663", fillcolor="#fbeade"] ;
64 -> 76 ;
22 [label="Prev1 <= -6.171\nsquared_error = 1.916\nsamples = 260\nvalue = -5.894", fillcolor="#f8dfcd"] ;
10 -> 22 ;
61 [label="Prev2 <= -4.793\nsquared_error = 1.476\nsamples = 114\nvalue = -6.889", fillcolor="#f9e0ce"] ;
22 -> 61 ;
123 [label="Prev2 <= -8.234\nsquared_error = 0.925\nsamples = 108\nvalue = -6.741", fillcolor="#f9e0ce"] ;
61 -> 123 ;
157 [label="Prev1 <= -6.608\nsquared_error = 1.651\nsamples = 12\nvalue = -5.37", fillcolor="#f8dfcc"] ;
123 -> 157 ;
215 [label="squared_error = 0.553\nsamples = 9\nvalue = -5.991", fillcolor="#f8dfcd"] ;
157 -> 215 ;
216 [label="squared_error = 0.316\nsamples = 3\nvalue = -3.507", fillcolor="#f8ddca"] ;
157 -> 216 ;
158 [label="Prev1 <= -6.948\nsquared_error = 0.57\nsamples = 96\nvalue = -6.912", fillcolor="#f9e0ce"] ;
123 -> 158 ;
197 [label="squared_error = 0.369\nsamples = 49\nvalue = -7.335", fillcolor="#f9e0cf"] ;
158 -> 197 ;
198 [label="squared_error = 0.397\nsamples = 47\nvalue = -6.471", fillcolor="#f8dfcd"] ;
158 -> 198 ;
124 [label="Prev1 <= -6.195\nsquared_error = 3.888\nsamples = 6\nvalue = -9.555", fillcolor="#f9e2d1"] ;
61 -> 124 ;
187 [label="squared_error = 0.981\nsamples = 5\nvalue = -10.339", fillcolor="#f9e2d2"] ;
124 -> 187 ;
188 [label="squared_error = 0.0\nsamples = 1\nvalue = -5.637", fillcolor="#f8dfcc"] ;
124 -> 188 ;
62 [label="Prev2 <= -7.423\nsquared_error = 0.883\nsamples = 146\nvalue = -5.117", fillcolor="#f8decc"] ;
22 -> 62 ;
155 [label="squared_error = 0.478\nsamples = 6\nvalue = -3.009", fillcolor="#f8ddc9"] ;
62 -> 155 ;
156 [label="Prev1 <= -5.436\nsquared_error = 0.701\nsamples = 140\nvalue = -5.207", fillcolor="#f8dfcc"] ;
62 -> 156 ;
177 [label="Prev2 <= -5.542\nsquared_error = 0.681\nsamples = 44\nvalue = -5.782", fillcolor="#f8dfcd"] ;
156 -> 177 ;
209 [label="squared_error = 0.213\nsamples = 28\nvalue = -5.341", fillcolor="#f8dfcc"] ;
177 -> 209 ;
210 [label="squared_error = 0.565\nsamples = 16\nvalue = -6.553", fillcolor="#f9e0ce"] ;
177 -> 210 ;
178 [label="Prev2 <= -2.025\nsquared_error = 0.49\nsamples = 96\nvalue = -4.944", fillcolor="#f8decc"] ;
156 -> 178 ;
219 [label="squared_error = 0.358\nsamples = 94\nvalue = -4.89", fillcolor="#f8decc"] ;
178 -> 219 ;
220 [label="squared_error = 0.002\nsamples = 2\nvalue = -7.502", fillcolor="#f9e0cf"] ;
178 -> 220 ;
6 [label="Prev1 <= 2.382\nsquared_error = 13.074\nsamples = 2327\nvalue = 0.735", fillcolor="#f7dac5"] ;
1 -> 6 ;
7 [label="Prev1 <= -1.132\nsquared_error = 2.882\nsamples = 1744\nvalue = -0.872", fillcolor="#f8dbc7"] ;
6 -> 7 ;
19 [label="Prev1 <= -2.477\nsquared_error = 1.185\nsamples = 732\nvalue = -2.413", fillcolor="#f8dcc9"] ;
7 -> 19 ;
41 [label="Prev1 <= -3.57\nsquared_error = 0.739\nsamples = 351\nvalue = -3.196", fillcolor="#f8ddc9"] ;
19 -> 41 ;
91 [label="Prev2 <= -5.641\nsquared_error = 0.576\nsamples = 126\nvalue = -3.814", fillcolor="#f8ddca"] ;
41 -> 91 ;
191 [label="squared_error = 0.185\nsamples = 4\nvalue = -1.712", fillcolor="#f8dcc8"] ;
91 -> 191 ;
192 [label="Prev2 <= -3.462\nsquared_error = 0.439\nsamples = 122\nvalue = -3.883", fillcolor="#f8ddca"] ;
91 -> 192 ;
221 [label="squared_error = 0.269\nsamples = 107\nvalue = -3.759", fillcolor="#f8ddca"] ;
192 -> 221 ;
222 [label="squared_error = 0.761\nsamples = 15\nvalue = -4.766", fillcolor="#f8decb"] ;
192 -> 222 ;
92 [label="Prev2 <= -3.981\nsquared_error = 0.497\nsamples = 225\nvalue = -2.85", fillcolor="#f8ddc9"] ;
41 -> 92 ;
149 [label="squared_error = 1.151\nsamples = 13\nvalue = -1.387", fillcolor="#f8dcc7"] ;
92 -> 149 ;
150 [label="Prev1 <= -3.095\nsquared_error = 0.317\nsamples = 212\nvalue = -2.94", fillcolor="#f8ddc9"] ;
92 -> 150 ;
203 [label="squared_error = 0.398\nsamples = 79\nvalue = -3.304", fillcolor="#f8ddca"] ;
150 -> 203 ;
204 [label="squared_error = 0.144\nsamples = 133\nvalue = -2.723", fillcolor="#f8ddc9"] ;
150 -> 204 ;
42 [label="Prev1 <= -1.89\nsquared_error = 0.51\nsamples = 381\nvalue = -1.691", fillcolor="#f8dcc8"] ;
19 -> 42 ;
127 [label="Prev2 <= -1.286\nsquared_error = 0.532\nsamples = 144\nvalue = -2.122", fillcolor="#f8dcc8"] ;
42 -> 127 ;
141 [label="squared_error = 0.254\nsamples = 133\nvalue = -1.986", fillcolor="#f8dcc8"] ;
127 -> 141 ;
142 [label="squared_error = 0.938\nsamples = 11\nvalue = -3.773", fillcolor="#f8ddca"] ;
127 -> 142 ;
128 [label="Prev2 <= -3.395\nsquared_error = 0.315\nsamples = 237\nvalue = -1.43", fillcolor="#f8dcc7"] ;
42 -> 128 ;
171 [label="squared_error = 0.526\nsamples = 4\nvalue = 0.9", fillcolor="#f7dac5"] ;
128 -> 171 ;
172 [label="squared_error = 0.217\nsamples = 233\nvalue = -1.47", fillcolor="#f8dcc7"] ;
128 -> 172 ;
20 [label="Prev1 <= 0.433\nsquared_error = 1.152\nsamples = 1012\nvalue = 0.242", fillcolor="#f7dac5"] ;
7 -> 20 ;
29 [label="Prev1 <= -0.383\nsquared_error = 0.435\nsamples = 652\nvalue = -0.336", fillcolor="#f8dbc6"] ;
20 -> 29 ;
93 [label="Prev2 <= 4.322\nsquared_error = 0.53\nsamples = 294\nvalue = -0.691", fillcolor="#f8dbc6"] ;
29 -> 93 ;
145 [label="Prev2 <= 2.944\nsquared_error = 0.428\nsamples = 293\nvalue = -0.673", fillcolor="#f8dbc6"] ;
93 -> 145 ;
147 [label="Prev2 <= -1.688\nsquared_error = 0.205\nsamples = 292\nvalue = -0.7", fillcolor="#f8dbc6"] ;
145 -> 147 ;
241 [label="squared_error = 0.888\nsamples = 7\nvalue = 0.519", fillcolor="#f7dac5"] ;
147 -> 241 ;
242 [label="squared_error = 0.151\nsamples = 285\nvalue = -0.73", fillcolor="#f8dbc6"] ;
147 -> 242 ;
148 [label="squared_error = -0.0\nsamples = 1\nvalue = 7.414", fillcolor="#f6d5bd"] ;
145 -> 148 ;
146 [label="squared_error = 0.0\nsamples = 1\nvalue = -6.184", fillcolor="#f8dfcd"] ;
93 -> 146 ;
94 [label="Prev1 <= 0.048\nsquared_error = 0.169\nsamples = 358\nvalue = -0.044", fillcolor="#f7dbc6"] ;
29 -> 94 ;
207 [label="squared_error = 0.083\nsamples = 231\nvalue = -0.203", fillcolor="#f7dbc6"] ;
94 -> 207 ;
208 [label="squared_error = 0.197\nsamples = 127\nvalue = 0.245", fillcolor="#f7dac5"] ;
94 -> 208 ;
30 [label="Prev1 <= 1.01\nsquared_error = 0.748\nsamples = 360\nvalue = 1.289", fillcolor="#f7d9c4"] ;
20 -> 30 ;
85 [label="Prev2 <= 2.451\nsquared_error = 0.289\nsamples = 137\nvalue = 0.667", fillcolor="#f7dac5"] ;
30 -> 85 ;
189 [label="squared_error = 0.156\nsamples = 134\nvalue = 0.722", fillcolor="#f7dac5"] ;
85 -> 189 ;
190 [label="squared_error = 0.145\nsamples = 3\nvalue = -1.775", fillcolor="#f8dcc8"] ;
85 -> 190 ;
86 [label="Prev2 <= 0.49\nsquared_error = 0.647\nsamples = 223\nvalue = 1.67", fillcolor="#f7d9c4"] ;
30 -> 86 ;
103 [label="Prev2 <= -1.279\nsquared_error = 1.118\nsamples = 14\nvalue = 3.562", fillcolor="#f7d8c1"] ;
86 -> 103 ;
245 [label="squared_error = 0.256\nsamples = 3\nvalue = 5.198", fillcolor="#f7d6bf"] ;
103 -> 245 ;
246 [label="squared_error = 0.423\nsamples = 11\nvalue = 3.115", fillcolor="#f7d8c2"] ;
103 -> 246 ;
104 [label="Prev1 <= 1.602\nsquared_error = 0.36\nsamples = 209\nvalue = 1.544", fillcolor="#f7d9c4"] ;
86 -> 104 ;
179 [label="squared_error = 0.141\nsamples = 118\nvalue = 1.271", fillcolor="#f7d9c4"] ;
104 -> 179 ;
180 [label="Prev2 <= 2.977\nsquared_error = 0.422\nsamples = 91\nvalue = 1.898", fillcolor="#f7d9c3"] ;
104 -> 180 ;
211 [label="squared_error = 0.269\nsamples = 82\nvalue = 2.032", fillcolor="#f7d9c3"] ;
180 -> 211 ;
212 [label="squared_error = 0.167\nsamples = 9\nvalue = 0.679", fillcolor="#f7dac5"] ;
180 -> 212 ;
8 [label="Prev1 <= 7.028\nsquared_error = 12.709\nsamples = 583\nvalue = 5.544", fillcolor="#f7d6bf"] ;
6 -> 8 ;
15 [label="Prev1 <= 4.391\nsquared_error = 3.707\nsamples = 433\nvalue = 4.001", fillcolor="#f7d7c1"] ;
8 -> 15 ;
39 [label="Prev1 <= 3.774\nsquared_error = 1.462\nsamples = 267\nvalue = 3.165", fillcolor="#f7d8c2"] ;
15 -> 39 ;
133 [label="Prev2 <= 6.839\nsquared_error = 1.324\nsamples = 210\nvalue = 2.97", fillcolor="#f7d8c2"] ;
39 -> 133 ;
137 [label="Prev2 <= 4.646\nsquared_error = 1.141\nsamples = 209\nvalue = 2.94", fillcolor="#f7d8c2"] ;
133 -> 137 ;
143 [label="Prev1 <= 3.725\nsquared_error = 1.027\nsamples = 198\nvalue = 3.031", fillcolor="#f7d8c2"] ;
137 -> 143 ;
153 [label="Prev1 <= 3.154\nsquared_error = 0.408\nsamples = 195\nvalue = 3.078", fillcolor="#f7d8c2"] ;
143 -> 153 ;
175 [label="squared_error = 0.299\nsamples = 115\nvalue = 2.803", fillcolor="#f7d8c2"] ;
153 -> 175 ;
176 [label="squared_error = 0.3\nsamples = 80\nvalue = 3.474", fillcolor="#f7d8c1"] ;
153 -> 176 ;
154 [label="squared_error = 31.915\nsamples = 3\nvalue = -0.003", fillcolor="#f7dac6"] ;
143 -> 154 ;
144 [label="squared_error = 0.327\nsamples = 11\nvalue = 1.293", fillcolor="#f7d9c4"] ;
137 -> 144 ;
138 [label="squared_error = 0.0\nsamples = 1\nvalue = 9.255", fillcolor="#f6d3ba"] ;
133 -> 138 ;
134 [label="Prev2 <= 7.807\nsquared_error = 1.311\nsamples = 57\nvalue = 3.884", fillcolor="#f7d7c1"] ;
39 -> 134 ;
135 [label="squared_error = 0.457\nsamples = 55\nvalue = 4.062", fillcolor="#f7d7c1"] ;
134 -> 135 ;
136 [label="squared_error = 0.011\nsamples = 2\nvalue = -1.007", fillcolor="#f8dbc7"] ;
134 -> 136 ;
40 [label="Life Expectancy <= 47.773\nsquared_error = 4.389\nsamples = 166\nvalue = 5.344", fillcolor="#f7d6bf"] ;
15 -> 40 ;
55 [label="squared_error = 0.0\nsamples = 1\nvalue = 20.555", fillcolor="#f4cbad"] ;
40 -> 55 ;
56 [label="Prev2 <= 10.177\nsquared_error = 3.005\nsamples = 165\nvalue = 5.252", fillcolor="#f7d6bf"] ;
40 -> 56 ;
67 [label="Prev1 <= 5.506\nsquared_error = 1.599\nsamples = 160\nvalue = 5.434", fillcolor="#f7d6bf"] ;
56 -> 67 ;
97 [label="Prev2 <= 2.833\nsquared_error = 1.045\nsamples = 92\nvalue = 4.912", fillcolor="#f7d7c0"] ;
67 -> 97 ;
139 [label="squared_error = 0.396\nsamples = 4\nvalue = 7.719", fillcolor="#f6d5bc"] ;
97 -> 139 ;
140 [label="Prev2 <= 5.571\nsquared_error = 0.7\nsamples = 88\nvalue = 4.784", fillcolor="#f7d7c0"] ;
97 -> 140 ;
167 [label="squared_error = 0.428\nsamples = 71\nvalue = 5.034", fillcolor="#f7d7bf"] ;
140 -> 167 ;
168 [label="squared_error = 0.488\nsamples = 17\nvalue = 3.742", fillcolor="#f7d8c1"] ;
140 -> 168 ;
98 [label="Inflation <= 10.774\nsquared_error = 1.483\nsamples = 68\nvalue = 6.139", fillcolor="#f6d6be"] ;
67 -> 98 ;
181 [label="Prev2 <= 7.507\nsquared_error = 1.204\nsamples = 67\nvalue = 6.073", fillcolor="#f6d6be"] ;
98 -> 181 ;
195 [label="Prev1 <= 6.295\nsquared_error = 1.013\nsamples = 57\nvalue = 6.291", fillcolor="#f6d6be"] ;
181 -> 195 ;
223 [label="squared_error = 0.571\nsamples = 32\nvalue = 5.865", fillcolor="#f7d6be"] ;
195 -> 223 ;
224 [label="Prev2 <= 3.776\nsquared_error = 1.05\nsamples = 25\nvalue = 6.836", fillcolor="#f6d5bd"] ;
195 -> 224 ;
239 [label="squared_error = 0.0\nsamples = 1\nvalue = 3.602", fillcolor="#f7d8c1"] ;
224 -> 239 ;
240 [label="squared_error = 0.64\nsamples = 24\nvalue = 6.97", fillcolor="#f6d5bd"] ;
224 -> 240 ;
196 [label="squared_error = 0.481\nsamples = 10\nvalue = 4.83", fillcolor="#f7d7c0"] ;
181 -> 196 ;
182 [label="squared_error = 0.0\nsamples = 1\nvalue = 10.595", fillcolor="#f6d2b9"] ;
98 -> 182 ;
68 [label="Inflation <= 5.316\nsquared_error = 13.187\nsamples = 5\nvalue = -0.557", fillcolor="#f8dbc6"] ;
56 -> 68 ;
105 [label="squared_error = 5.373\nsamples = 2\nvalue = 3.368", fillcolor="#f7d8c2"] ;
68 -> 105 ;
106 [label="squared_error = 1.279\nsamples = 3\nvalue = -3.174", fillcolor="#f8ddc9"] ;
68 -> 106 ;
16 [label="Prev1 <= 10.321\nsquared_error = 11.973\nsamples = 150\nvalue = 9.999", fillcolor="#f6d3b9"] ;
8 -> 16 ;
43 [label="Prev2 <= 4.62\nsquared_error = 7.653\nsamples = 90\nvalue = 8.657", fillcolor="#f6d4bb"] ;
16 -> 43 ;
45 [label="squared_error = 22.289\nsamples = 4\nvalue = 18.369", fillcolor="#f5ccaf"] ;
43 -> 45 ;
46 [label="Prev1 <= 8.172\nsquared_error = 2.381\nsamples = 86\nvalue = 8.205", fillcolor="#f6d4bc"] ;
43 -> 46 ;
119 [label="Prev2 <= 5.226\nsquared_error = 0.968\nsamples = 39\nvalue = 7.403", fillcolor="#f6d5bd"] ;
46 -> 119 ;
237 [label="squared_error = 0.0\nsamples = 1\nvalue = 10.672", fillcolor="#f6d2b9"] ;
119 -> 237 ;
238 [label="squared_error = 0.705\nsamples = 38\nvalue = 7.317", fillcolor="#f6d5bd"] ;
119 -> 238 ;
120 [label="Prev2 <= 12.089\nsquared_error = 2.576\nsamples = 47\nvalue = 8.871", fillcolor="#f6d4bb"] ;
46 -> 120 ;
121 [label="Prev2 <= 6.871\nsquared_error = 1.473\nsamples = 44\nvalue = 9.154", fillcolor="#f6d3ba"] ;
120 -> 121 ;
199 [label="squared_error = 0.559\nsamples = 4\nvalue = 11.155", fillcolor="#f6d2b8"] ;
121 -> 199 ;
200 [label="Prev1 <= 9.347\nsquared_error = 1.123\nsamples = 40\nvalue = 8.954", fillcolor="#f6d4bb"] ;
121 -> 200 ;
213 [label="squared_error = 0.843\nsamples = 21\nvalue = 8.392", fillcolor="#f6d4bb"] ;
200 -> 213 ;
214 [label="squared_error = 0.7\nsamples = 19\nvalue = 9.574", fillcolor="#f6d3ba"] ;
200 -> 214 ;
122 [label="squared_error = 0.312\nsamples = 3\nvalue = 4.715", fillcolor="#f7d7c0"] ;
120 -> 122 ;
44 [label="Prev2 <= 10.944\nsquared_error = 11.699\nsamples = 60\nvalue = 12.012", fillcolor="#f6d1b7"] ;
16 -> 44 ;
57 [label="Prev1 <= 12.401\nsquared_error = 11.106\nsamples = 20\nvalue = 14.763", fillcolor="#f5cfb4"] ;
44 -> 57 ;
77 [label="Prev2 <= 8.465\nsquared_error = 6.154\nsamples = 14\nvalue = 13.167", fillcolor="#f5d0b6"] ;
57 -> 77 ;
99 [label="squared_error = 5.182\nsamples = 3\nvalue = 17.064", fillcolor="#f5cdb1"] ;
77 -> 99 ;
100 [label="squared_error = 1.149\nsamples = 11\nvalue = 12.104", fillcolor="#f6d1b7"] ;
77 -> 100 ;
78 [label="Prev2 <= 10.756\nsquared_error = 2.855\nsamples = 6\nvalue = 18.486", fillcolor="#f5ccaf"] ;
57 -> 78 ;
227 [label="squared_error = 0.996\nsamples = 5\nvalue = 19.123", fillcolor="#f4ccae"] ;
78 -> 227 ;
228 [label="squared_error = -0.0\nsamples = 1\nvalue = 15.305", fillcolor="#f5cfb3"] ;
78 -> 228 ;
58 [label="Prev2 <= 20.696\nsquared_error = 6.32\nsamples = 40\nvalue = 10.637", fillcolor="#f6d2b9"] ;
44 -> 58 ;
79 [label="Healthcare expenditure <= 49.145\nsquared_error = 3.686\nsamples = 36\nvalue = 11.209", fillcolor="#f6d2b8"] ;
58 -> 79 ;
117 [label="Life Expectancy <= 74.574\nsquared_error = 2.474\nsamples = 20\nvalue = 10.197", fillcolor="#f6d3b9"] ;
79 -> 117 ;
151 [label="squared_error = 0.431\nsamples = 2\nvalue = 6.611", fillcolor="#f6d5be"] ;
117 -> 151 ;
152 [label="Inflation <= 2.203\nsquared_error = 1.114\nsamples = 18\nvalue = 10.596", fillcolor="#f6d2b9"] ;
117 -> 152 ;
217 [label="squared_error = 0.354\nsamples = 10\nvalue = 9.82", fillcolor="#f6d3ba"] ;
152 -> 217 ;
218 [label="squared_error = 0.369\nsamples = 8\nvalue = 11.566", fillcolor="#f6d2b8"] ;
152 -> 218 ;
118 [label="Prev1 <= 12.61\nsquared_error = 2.318\nsamples = 16\nvalue = 12.475", fillcolor="#f5d1b6"] ;
79 -> 118 ;
173 [label="squared_error = 0.806\nsamples = 8\nvalue = 11.318", fillcolor="#f6d2b8"] ;
118 -> 173 ;
174 [label="squared_error = 1.154\nsamples = 8\nvalue = 13.632", fillcolor="#f5d0b5"] ;
118 -> 174 ;
80 [label="squared_error = 0.483\nsamples = 4\nvalue = 5.48", fillcolor="#f7d6bf"] ;
58 -> 80 ;
2 [label="Prev1 <= 56.703\nsquared_error = 542.809\nsamples = 108\nvalue = 33.129", fillcolor="#f2c19d"] ;
0 -> 2 [labeldistance=2.5, labelangle=-45, headlabel="False"] ;
3 [label="Prev1 <= 29.634\nsquared_error = 100.454\nsamples = 95\nvalue = 25.777", fillcolor="#f3c7a6"] ;
2 -> 3 ;
11 [label="Prev1 <= 19.754\nsquared_error = 38.117\nsamples = 66\nvalue = 20.911", fillcolor="#f4caac"] ;
3 -> 11 ;
33 [label="Prev2 <= 14.19\nsquared_error = 8.569\nsamples = 31\nvalue = 17.954", fillcolor="#f5cdb0"] ;
11 -> 33 ;
81 [label="Mortality <= 30.8\nsquared_error = 3.47\nsamples = 5\nvalue = 22.298", fillcolor="#f4c9ab"] ;
33 -> 81 ;
231 [label="squared_error = 1.403\nsamples = 4\nvalue = 23.064", fillcolor="#f4c9aa"] ;
81 -> 231 ;
232 [label="squared_error = -0.0\nsamples = 1\nvalue = 19.234", fillcolor="#f4ccae"] ;
81 -> 232 ;
82 [label="Mortality <= 28.1\nsquared_error = 5.222\nsamples = 26\nvalue = 17.119", fillcolor="#f5cdb1"] ;
33 -> 82 ;
95 [label="Prev2 <= 19.225\nsquared_error = 2.792\nsamples = 25\nvalue = 16.8", fillcolor="#f5cdb1"] ;
82 -> 95 ;
115 [label="squared_error = 0.85\nsamples = 22\nvalue = 17.309", fillcolor="#f5cdb1"] ;
95 -> 115 ;
116 [label="squared_error = 1.203\nsamples = 3\nvalue = 13.067", fillcolor="#f5d0b6"] ;
95 -> 116 ;
96 [label="squared_error = 0.0\nsamples = 1\nvalue = 25.083", fillcolor="#f3c7a7"] ;
82 -> 96 ;
34 [label="Prev2 <= 25.33\nsquared_error = 49.687\nsamples = 35\nvalue = 23.53", fillcolor="#f4c8a9"] ;
11 -> 34 ;
35 [label="DALYs <= 26010.577\nsquared_error = 24.179\nsamples = 21\nvalue = 27.692", fillcolor="#f3c5a4"] ;
34 -> 35 ;
47 [label="Life Expectancy <= 73.91\nsquared_error = 9.902\nsamples = 14\nvalue = 25.001", fillcolor="#f3c7a7"] ;
35 -> 47 ;
113 [label="squared_error = 0.678\nsamples = 4\nvalue = 22.079", fillcolor="#f4c9ab"] ;
47 -> 113 ;
114 [label="Prev2 <= 21.736\nsquared_error = 8.81\nsamples = 10\nvalue = 26.17", fillcolor="#f3c6a6"] ;
47 -> 114 ;
129 [label="Prev1 <= 22.043\nsquared_error = 4.446\nsamples = 5\nvalue = 28.166", fillcolor="#f3c5a3"] ;
114 -> 129 ;
185 [label="squared_error = 0.126\nsamples = 2\nvalue = 25.815", fillcolor="#f3c7a6"] ;
129 -> 185 ;
186 [label="squared_error = 1.183\nsamples = 3\nvalue = 29.733", fillcolor="#f3c3a1"] ;
129 -> 186 ;
130 [label="GDP <= 2.245\nsquared_error = 5.203\nsamples = 5\nvalue = 24.173", fillcolor="#f4c8a8"] ;
114 -> 130 ;
183 [label="squared_error = 1.182\nsamples = 2\nvalue = 21.757", fillcolor="#f4caab"] ;
130 -> 183 ;
184 [label="squared_error = 1.398\nsamples = 3\nvalue = 25.784", fillcolor="#f3c7a6"] ;
130 -> 184 ;
48 [label="Low <= 0.5\nsquared_error = 9.283\nsamples = 7\nvalue = 33.074", fillcolor="#f2c19d"] ;
35 -> 48 ;
125 [label="Mortality <= 26.35\nsquared_error = 4.062\nsamples = 5\nvalue = 31.502", fillcolor="#f2c29f"] ;
48 -> 125 ;
201 [label="squared_error = 0.624\nsamples = 2\nvalue = 33.787", fillcolor="#f2c09d"] ;
125 -> 201 ;
202 [label="squared_error = 0.55\nsamples = 3\nvalue = 29.978", fillcolor="#f3c3a1"] ;
125 -> 202 ;
126 [label="squared_error = 0.706\nsamples = 2\nvalue = 37.004", fillcolor="#f2be99"] ;
48 -> 126 ;
36 [label="DALYs <= 22818.313\nsquared_error = 22.98\nsamples = 14\nvalue = 17.286", fillcolor="#f5cdb1"] ;
34 -> 36 ;
69 [label="squared_error = 3.734\nsamples = 4\nvalue = 22.712", fillcolor="#f4c9aa"] ;
36 -> 69 ;
70 [label="Prev2 <= 42.616\nsquared_error = 14.188\nsamples = 10\nvalue = 15.115", fillcolor="#f5cfb3"] ;
36 -> 70 ;
83 [label="Prev1 <= 24.451\nsquared_error = 5.648\nsamples = 9\nvalue = 16.121", fillcolor="#f5ceb2"] ;
70 -> 83 ;
131 [label="squared_error = 1.148\nsamples = 7\nvalue = 15.008", fillcolor="#f5cfb3"] ;
83 -> 131 ;
132 [label="squared_error = 1.879\nsamples = 2\nvalue = 20.018", fillcolor="#f4cbad"] ;
83 -> 132 ;
84 [label="squared_error = -0.0\nsamples = 1\nvalue = 6.063", fillcolor="#f6d6be"] ;
70 -> 84 ;
12 [label="Prev1 <= 39.094\nsquared_error = 65.785\nsamples = 29\nvalue = 36.852", fillcolor="#f2be99"] ;
3 -> 12 ;
25 [label="Prev2 <= 36.497\nsquared_error = 32.374\nsamples = 17\nvalue = 32.486", fillcolor="#f2c19e"] ;
12 -> 25 ;
53 [label="Inflation <= 2.634\nsquared_error = 20.472\nsamples = 12\nvalue = 34.949", fillcolor="#f2bf9b"] ;
25 -> 53 ;
73 [label="squared_error = 4.314\nsamples = 4\nvalue = 39.731", fillcolor="#f1bc95"] ;
53 -> 73 ;
74 [label="Healthcare expenditure <= 21.316\nsquared_error = 11.397\nsamples = 8\nvalue = 32.558", fillcolor="#f2c19e"] ;
53 -> 74 ;
87 [label="squared_error = 0.722\nsamples = 5\nvalue = 35.066", fillcolor="#f2bf9b"] ;
74 -> 87 ;
88 [label="squared_error = 1.225\nsamples = 3\nvalue = 28.377", fillcolor="#f3c5a3"] ;
74 -> 88 ;
54 [label="Prev2 <= 42.33\nsquared_error = 11.435\nsamples = 5\nvalue = 26.575", fillcolor="#f3c6a5"] ;
25 -> 54 ;
101 [label="squared_error = 0.705\nsamples = 3\nvalue = 23.865", fillcolor="#f4c8a9"] ;
54 -> 101 ;
102 [label="squared_error = 0.004\nsamples = 2\nvalue = 30.639", fillcolor="#f3c3a0"] ;
54 -> 102 ;
26 [label="Prev2 <= 49.974\nsquared_error = 47.871\nsamples = 12\nvalue = 43.036", fillcolor="#f1b991"] ;
12 -> 26 ;
51 [label="Healthcare expenditure <= 28.448\nsquared_error = 11.26\nsamples = 8\nvalue = 46.385", fillcolor="#f0b78d"] ;
26 -> 51 ;
159 [label="Inflation <= 2.401\nsquared_error = 9.271\nsamples = 7\nvalue = 45.714", fillcolor="#f0b78e"] ;
51 -> 159 ;
161 [label="squared_error = 7.172\nsamples = 4\nvalue = 43.845", fillcolor="#f0b990"] ;
159 -> 161 ;
162 [label="squared_error = 1.203\nsamples = 3\nvalue = 48.206", fillcolor="#f0b58b"] ;
159 -> 162 ;
160 [label="squared_error = 0.0\nsamples = 1\nvalue = 51.079", fillcolor="#efb388"] ;
51 -> 160 ;
52 [label="squared_error = 53.815\nsamples = 4\nvalue = 36.339", fillcolor="#f2be99"] ;
26 -> 52 ;
4 [label="Prev1 <= 87.787\nsquared_error = 493.829\nsamples = 13\nvalue = 86.856", fillcolor="#ea975c"] ;
2 -> 4 ;
13 [label="Inflation <= 2.582\nsquared_error = 183.891\nsamples = 7\nvalue = 69.822", fillcolor="#eca471"] ;
4 -> 13 ;
23 [label="squared_error = 13.416\nsamples = 2\nvalue = 51.05", fillcolor="#efb388"] ;
13 -> 23 ;
24 [label="GDP <= 4.263\nsquared_error = 54.746\nsamples = 5\nvalue = 77.331", fillcolor="#eb9f68"] ;
13 -> 24 ;
59 [label="squared_error = 22.804\nsamples = 2\nvalue = 85.497", fillcolor="#ea985e"] ;
24 -> 59 ;
60 [label="squared_error = 1.945\nsamples = 3\nvalue = 71.887", fillcolor="#eca36e"] ;
24 -> 60 ;
14 [label="DALYs <= 28170.087\nsquared_error = 122.004\nsamples = 6\nvalue = 106.728", fillcolor="#e68844"] ;
4 -> 14 ;
37 [label="squared_error = 0.0\nsamples = 1\nvalue = 86.593", fillcolor="#ea985c"] ;
14 -> 37 ;
38 [label="Inflation <= 1.727\nsquared_error = 49.106\nsamples = 5\nvalue = 110.755", fillcolor="#e6853f"] ;
14 -> 38 ;
65 [label="squared_error = 20.151\nsamples = 3\nvalue = 115.706", fillcolor="#e58139"] ;
38 -> 65 ;
66 [label="squared_error = 0.633\nsamples = 2\nvalue = 103.329", fillcolor="#e78b48"] ;
38 -> 66 ;
}